<?xml version="1.0"?>
<opencv_storage>
<myhaar type_id="opencv-haar-classifier">
  <size>
    24 24</size>
  <stages>
    <_>
      <trees>
        <_>
          <_>
            <feature>
              <rects>
                <_>
                  9 22 6 2 -1.</_>
                <_>
                  9 23 6 1 2.</_></rects>
              <tilted>0</tilted></feature>
            <threshold>-5.6579681113362312e-003</threshold>
            <left_val>0.8691589832305908</left_val>
            <right_val>-1.</right_val></_></_></trees>
      <stage_threshold>0.8691589832305908</stage_threshold>
      <parent>-1</parent>
      <next>-1</next></_>
    <_>
      <trees>
        <_>
          <_>
            <feature>
              <rects>
                <_>
                  7 1 3 12 -1.</_>
                <_>
                  7 5 3 4 3.</_></rects>
              <tilted>0</tilted></feature>
            <threshold>0.0298880096524954</threshold>
            <left_val>-1.</left_val>
            <right_val>0.9138752222061157</right_val></_></_></trees>
      <stage_threshold>0.9138752222061157</stage_threshold>
      <parent>0</parent>
      <next>-1</next></_>
    <_>
      <trees>
        <_>
          <_>
            <feature>
              <rects>
                <_>
                  0 6 6 10 -1.</_>
                <_>
                  3 6 3 10 2.</_></rects>
              <tilted>0</tilted></feature>
            <threshold>0.0366107709705830</threshold>
            <left_val>-1.</left_val>
            <right_val>0.8867921233177185</right_val></_></_></trees>
      <stage_threshold>0.8867921233177185</stage_threshold>
      <parent>1</parent>
      <next>-1</next></_>
    <_>
      <trees>
        <_>
          <_>
            <feature>
              <rects>
                <_>
                  4 8 12 2 -1.</_>
                <_>
                  8 12 4 2 3.</_></rects>
              <tilted>1</tilted></feature>
            <threshold>0.0319967381656170</threshold>
            <left_val>-1.</left_val>
            <right_val>0.7543858289718628</right_val></_></_></trees>
      <stage_threshold>0.7543858289718628</stage_threshold>
      <parent>2</parent>
      <next>-1</next></_>
    <_>
      <trees>
        <_>
          <_>
            <feature>
              <rects>
                <_>
                  9 5 6 9 -1.</_>
                <_>
                  11 8 2 3 9.</_></rects>
              <tilted>0</tilted></feature>
            <threshold>0.0217746905982494</threshold>
            <left_val>-1.</left_val>
            <right_val>0.7391303181648254</right_val></_></_></trees>
      <stage_threshold>0.7391303181648254</stage_threshold>
      <parent>3</parent>
      <next>-1</next></_>
    <_>
      <trees>
        <_>
          <_>
            <feature>
              <rects>
                <_>
                  0 20 9 3 -1.</_>
                <_>
                  3 20 3 3 3.</_></rects>
              <tilted>0</tilted></feature>
            <threshold>-6.2362249009311199e-003</threshold>
            <left_val>0.8099548816680908</left_val>
            <right_val>-1.</right_val></_></_></trees>
      <stage_threshold>0.8099548816680908</stage_threshold>
      <parent>4</parent>
      <next>-1</next></_></stages></myhaar>
</opencv_storage>
